<?xml version="1.0"?>
<opencv_storage>
<!-- Created using Computer Vision Toolbox(tm) for MATLAB(R) -->
<!-- Version 9.11.0.1769968 (R2021b) -->
<!-- Compatible with OpenCV 4.2 -->
<cascade>
  <stageType>BOOST</stageType>
  <featureType>LBP</featureType>
  <height>24</height>
  <width>24</width>
  <stageParams>
    <boostType>GAB</boostType>
    <minHitRate>9.9500000476837158e-01</minHitRate>
    <maxFalseAlarm>1.0000000149011612e-01</maxFalseAlarm>
    <weightTrimRate>9.4999999999999996e-01</weightTrimRate>
    <maxDepth>1</maxDepth>
    <maxWeakCount>100</maxWeakCount></stageParams>
  <featureParams>
    <maxCatCount>256</maxCatCount>
    <featSize>1</featSize></featureParams>
  <stageNum>5</stageNum>
  <stages>
    <!-- stage 0 -->
    <_>
      <maxWeakCount>27</maxWeakCount>
      <stageThreshold>-1.5305227041244507e+00</stageThreshold>
      <weakClassifiers>
        <_>
          <internalNodes>
            0 -1 8 -18 -1 -18 -1 -1 -17 -1 -1</internalNodes>
          <leafValues>
            -7.3367834091186523e-01 5.0636720657348633e-01</leafValues></_>
        <_>
          <internalNodes>
            0 -1 178 -856687424 -857408284 -35 -1 -722079744 -724173323
            -134219789 -1</internalNodes>
          <leafValues>
            -7.1524900197982788e-01 4.4148659706115723e-01</leafValues></_>
        <_>
          <internalNodes>
            0 -1 15 -496832926 -501027102 -18153505 -67633169 -162201776
            -465438873 -524321 -1</internalNodes>
          <leafValues>
            -6.2540137767791748e-01 4.2640924453735352e-01</leafValues></_>
        <_>
          <internalNodes>
            0 -1 125 -21569 -20481 -201874757 -67130710 -17473 -16385
            -1145077078 -5272918</internalNodes>
          <leafValues>
            -3.4534221887588501e-01 5.6570458412170410e-01</leafValues></_>
        <_>
          <internalNodes>
            0 -1 283 -269484037 -861210701 -740331456 -573046799
            -35662341 -1056965133 1465340225 -705169437</internalNodes>
          <leafValues>
            -3.4766396880149841e-01 4.6288120746612549e-01</leafValues></_>
        <_>
          <internalNodes>
            0 -1 277 -241 -2097249 -268447761 -289 -8451072 108887325
            -1347476472 -1347424369</internalNodes>
          <leafValues>
            -2.8344282507896423e-01 4.6562701463699341e-01</leafValues></_>
        <_>
          <internalNodes>
            0 -1 22 -129 -76022145 -823466434 -264051974 -478169769
            -25698697 -4995393 -193462529</internalNodes>
          <leafValues>
            -2.8043624758720398e-01 4.8311576247215271e-01</leafValues></_>
        <_>
          <internalNodes>
            0 -1 228 -608894987 -196611 -3 -98444 -4325379 -259 -66132
            -1128774588</internalNodes>
          <leafValues>
            -3.1097754836082458e-01 3.9362719655036926e-01</leafValues></_>
        <_>
          <internalNodes>
            0 -1 78 -252381964 -320033025 539304233 -318822146
            -206505039 -1142032385 -1146275021 -1073762385</internalNodes>
          <leafValues>
            -3.6941096186637878e-01 3.0536013841629028e-01</leafValues></_>
        <_>
          <internalNodes>
            0 -1 269 -268440645 36366115 -1698717662 -1593655382
            1476389867 211808251 1731703680 -1297877325</internalNodes>
          <leafValues>
            -3.3459171652793884e-01 2.9659992456436157e-01</leafValues></_>
        <_>
          <internalNodes>
            0 -1 212 -205488351 -1278545 -32770 -3344402 -2621451 -2053
            -774046268 -274455296</internalNodes>
          <leafValues>
            -3.5321611166000366e-01 2.7060160040855408e-01</leafValues></_>
        <_>
          <internalNodes>
            0 -1 56 -26023914 -209735969 673208914 195327 1344422976
            1414751834 -916405014 -128782341</internalNodes>
          <leafValues>
            -3.9335015416145325e-01 2.4738833308219910e-01</leafValues></_>
        <_>
          <internalNodes>
            0 -1 16 1625483234 805072895 -273735873 801845159 1983348727
            1610612671 1866411903 1879008063</internalNodes>
          <leafValues>
            -4.3060553073883057e-01 2.1811076998710632e-01</leafValues></_>
        <_>
          <internalNodes>
            0 -1 61 -1427198033 -822702370 -285492241 -1896305924
            -268505089 -2013663235 -139331597 -537141763</internalNodes>
          <leafValues>
            -3.1386557221412659e-01 3.0897518992424011e-01</leafValues></_>
        <_>
          <internalNodes>
            0 -1 216 1685386504 285007601 -335565955 -1745010707
            636299017 357956797 805252367 801103295</internalNodes>
          <leafValues>
            -4.5824658870697021e-01 1.9880859553813934e-01</leafValues></_>
        <_>
          <internalNodes>
            0 -1 210 3671120 402148345 -553853957 -1073791811 1022905461
            -262147 -1074381057 -1140899845</internalNodes>
          <leafValues>
            -3.0291992425918579e-01 2.8118267655372620e-01</leafValues></_>
        <_>
          <internalNodes>
            0 -1 122 79627317 -1426309121 1035960309 -17141764
            -1627555500 -1132 -16636 -1125373236</internalNodes>
          <leafValues>
            -3.6259776353836060e-01 2.4355357885360718e-01</leafValues></_>
        <_>
          <internalNodes>
            0 -1 272 -876617229 142725152 1168626032 -586287631
            -878729797 -869271625 1440175573 -718277127</internalNodes>
          <leafValues>
            -2.5960794091224670e-01 3.2441636919975281e-01</leafValues></_>
        <_>
          <internalNodes>
            0 -1 45 -1599619666 -2035356189 -252482400 -1561466128
            -302127257 68222957 -320931855 -134236683</internalNodes>
          <leafValues>
            -3.2602706551551819e-01 2.5820517539978027e-01</leafValues></_>
        <_>
          <internalNodes>
            0 -1 106 1963240992 296003333 -1548166605 -1108105597
            1464985503 -1245315081 -2113621 -1110655062</internalNodes>
          <leafValues>
            -3.2200756669044495e-01 2.4343769252300262e-01</leafValues></_>
        <_>
          <internalNodes>
            0 -1 25 -16809 -1291616593 -1574768598 134879887 -92322715
            2002798421 -178789540 -246156049</internalNodes>
          <leafValues>
            -3.0000856518745422e-01 2.6842844486236572e-01</leafValues></_>
        <_>
          <internalNodes>
            0 -1 336 -303837201 -368644817 -354521886 -84201494
            -1796020285 1152571359 -151522202 -134750233</internalNodes>
          <leafValues>
            -2.3349037766456604e-01 3.4252348542213440e-01</leafValues></_>
        <_>
          <internalNodes>
            0 -1 195 866256788 -72555156 -459786 1910934446 2125615536
            -1073762305 402080000 1910776704</internalNodes>
          <leafValues>
            -4.5767411589622498e-01 1.6881212592124939e-01</leafValues></_>
        <_>
          <internalNodes>
            0 -1 17 -495980881 579513006 -290525486 -1301664086
            1964472071 618604287 -268968105 -205522065</internalNodes>
          <leafValues>
            -3.0593276023864746e-01 2.4866878986358643e-01</leafValues></_>
        <_>
          <internalNodes>
            0 -1 35 -534764171 -319025410 -1344263233 805186495
            1872066357 -402685953 -1141687509 1874661279</internalNodes>
          <leafValues>
            -3.2782080769538879e-01 2.3844906687736511e-01</leafValues></_>
        <_>
          <internalNodes>
            0 -1 169 -1334948523 -28028567 -335875589 -1171108589
            -1361286048 -2204073 -1090847236 -1171108832</internalNodes>
          <leafValues>
            -3.3095881342887878e-01 2.2626531124114990e-01</leafValues></_>
        <_>
          <internalNodes>
            0 -1 332 -572063889 -528049123 -219484630 -1063385489
            -177144507 1612056397 -1279356294 -155238433</internalNodes>
          <leafValues>
            -2.6095595955848694e-01 2.9067203402519226e-01</leafValues></_></weakClassifiers></_>
    <!-- stage 1 -->
    <_>
      <maxWeakCount>48</maxWeakCount>
      <stageThreshold>-1.4667979478836060e+00</stageThreshold>
      <weakClassifiers>
        <_>
          <internalNodes>
            0 -1 123 -1025 -5121 -201481541 -100695365 -1093 -1
            -67917125 -67130709</internalNodes>
          <leafValues>
            -5.7401680946350098e-01 4.7812238335609436e-01</leafValues></_>
        <_>
          <internalNodes>
            0 -1 232 -587205440 -721551873 -33554435 -33554449
            -184553344 -168296449 -4194545 -1</internalNodes>
          <leafValues>
            -4.8918926715850830e-01 3.5411757230758667e-01</leafValues></_>
        <_>
          <internalNodes>
            0 -1 34 -28115214 -263132478 -341049857 -208936721 -11403297
            -13567024 -1 -1025</internalNodes>
          <leafValues>
            -4.2753124237060547e-01 3.6451807618141174e-01</leafValues></_>
        <_>
          <internalNodes>
            0 -1 5 -269488209 -1431689558 -133185 -1414918646 -811864065
            136334179 -33 -36945</internalNodes>
          <leafValues>
            -3.5872372984886169e-01 3.5646590590476990e-01</leafValues></_>
        <_>
          <internalNodes>
            0 -1 27 -218107166 -253296646 587199146 -3329 -134744880
            -185405212 -637535493 -134218753</internalNodes>
          <leafValues>
            -3.2470107078552246e-01 3.5425910353660583e-01</leafValues></_>
        <_>
          <internalNodes>
            0 -1 287 -233 -713040521 -67108993 -8353 -33563372
            1971287301 -117577652 -1</internalNodes>
          <leafValues>
            -2.8915953636169434e-01 3.7848651409149170e-01</leafValues></_>
        <_>
          <internalNodes>
            0 -1 199 1346634956 1440067279 -1042218823 -57201 4456844
            2111339775 838664347 2147418255</internalNodes>
          <leafValues>
            -4.3990442156791687e-01 2.4305176734924316e-01</leafValues></_>
        <_>
          <internalNodes>
            0 -1 143 -69735750 -203821314 -587211014 -2002912630 -18518
            -1151344641 -12197110 114818</internalNodes>
          <leafValues>
            -3.3436161279678345e-01 2.4551646411418915e-01</leafValues></_>
        <_>
          <internalNodes>
            0 -1 285 -5246029 -2145197792 1371476272 -712773136
            -842009605 -2011234893 1352126608 -710937093</internalNodes>
          <leafValues>
            -2.8470748662948608e-01 2.8804174065589905e-01</leafValues></_>
        <_>
          <internalNodes>
            0 -1 168 -923120299 -151757001 -4538371 -1204667098
            -863220483 -33587457 -1090617346 -1162183304</internalNodes>
          <leafValues>
            -2.9457715153694153e-01 2.7719524502754211e-01</leafValues></_>
        <_>
          <internalNodes>
            0 -1 102 1363178752 296854437 -705314891 935013163
            1363431917 -51201 -57413 1002384299</internalNodes>
          <leafValues>
            -3.9531189203262329e-01 1.9875694811344147e-01</leafValues></_>
        <_>
          <internalNodes>
            0 -1 20 -2201 1885075071 2094966394 268627010 -142662144
            808746615 -16816128 -261620105</internalNodes>
          <leafValues>
            -2.9342317581176758e-01 2.5749853253364563e-01</leafValues></_>
        <_>
          <internalNodes>
            0 -1 226 203425584 741506929 -24641 -1078491178 1973697973
            -4194889 -1073861123 -1342214145</internalNodes>
          <leafValues>
            -3.0120807886123657e-01 2.3683023452758789e-01</leafValues></_>
        <_>
          <internalNodes>
            0 -1 317 -452988929 -1966150678 -403194447 -1985221942
            1151858611 81024500 1419203600 -721946637</internalNodes>
          <leafValues>
            -2.7979376912117004e-01 2.5714921951293945e-01</leafValues></_>
        <_>
          <internalNodes>
            0 -1 130 301311373 362256247 -1955880645 -1112439902
            2013259691 1073741823 -1074877812 703563530</internalNodes>
          <leafValues>
            -2.8457745909690857e-01 2.4404947459697723e-01</leafValues></_>
        <_>
          <internalNodes>
            0 -1 32 -286274266 543613731 -323806 -251727998 1459569989
            1147600719 -168835578 -167774793</internalNodes>
          <leafValues>
            -3.1791436672210693e-01 2.2229294478893280e-01</leafValues></_>
        <_>
          <internalNodes>
            0 -1 117 -50337202 2066016063 -252679426 -1306329590
            1142246464 1549081407 -251736834 -265098433</internalNodes>
          <leafValues>
            -2.9929178953170776e-01 2.1761579811573029e-01</leafValues></_>
        <_>
          <internalNodes>
            0 -1 97 -94375213 -385876993 -330500000 -322127126 -11011085
            -201460838 2136324672 -2295054</internalNodes>
          <leafValues>
            -2.3250098526477814e-01 2.7461707592010498e-01</leafValues></_>
        <_>
          <internalNodes>
            0 -1 263 -1373458639 1026735924 -67131403 -1077969099
            -1392513051 -1342832647 -1997208140 -1376098832</internalNodes>
          <leafValues>
            -2.9061871767044067e-01 2.2826281189918518e-01</leafValues></_>
        <_>
          <internalNodes>
            0 -1 204 -521155538 863498223 -1427577842 -1120370
            1894778615 1962344183 -254279953 -235407633</internalNodes>
          <leafValues>
            -2.5939810276031494e-01 2.5817608833312988e-01</leafValues></_>
        <_>
          <internalNodes>
            0 -1 327 -419713536 36097823 -423646046 -1561856186
            1717001733 1434419031 -167823708 -218103833</internalNodes>
          <leafValues>
            -3.2952338457107544e-01 1.9121673703193665e-01</leafValues></_>
        <_>
          <internalNodes>
            0 -1 164 485494356 1977114495 -50381217 -1610989643
            1257528525 -55156769 -1094971682 -1145098369</internalNodes>
          <leafValues>
            -2.3424932360649109e-01 2.7264681458473206e-01</leafValues></_>
        <_>
          <internalNodes>
            0 -1 291 170524688 377028607 -67896387 1073725439 918230492
            -1073875457 -1094842228 -1465865816</internalNodes>
          <leafValues>
            -3.1386381387710571e-01 2.0035424828529358e-01</leafValues></_>
        <_>
          <internalNodes>
            0 -1 176 1884814644 482148210 -276877505 800821039
            -1108265161 2004860798 794757134 733997950</internalNodes>
          <leafValues>
            -3.6033925414085388e-01 1.6714531183242798e-01</leafValues></_>
        <_>
          <internalNodes>
            0 -1 83 1828654631 -118034833 -1124110889 -222630610
            1761177079 1559724015 -21022818 -17338763</internalNodes>
          <leafValues>
            -2.4852947890758514e-01 2.4693420529365540e-01</leafValues></_>
        <_>
          <internalNodes>
            0 -1 309 -16865531 1416855421 -1157684224 -1292753118
            -177920747 1968467807 -1125506000 -134742033</internalNodes>
          <leafValues>
            -2.7969282865524292e-01 2.2075574100017548e-01</leafValues></_>
        <_>
          <internalNodes>
            0 -1 236 1087172606 1415952023 -534714772 1612763050
            1359009004 -586915705 1891953662 539206182</internalNodes>
          <leafValues>
            -3.2715362310409546e-01 1.8205428123474121e-01</leafValues></_>
        <_>
          <internalNodes>
            0 -1 70 -265478 2070145594 -332234616 807583946 1555628125
            1563543378 1354320074 -582496182</internalNodes>
          <leafValues>
            -2.7234804630279541e-01 2.1679641306400299e-01</leafValues></_>
        <_>
          <internalNodes>
            0 -1 207 -525669136 -333388768 78570817 -1381046616
            1460105617 557298944 1084178513 -1892943469</internalNodes>
          <leafValues>
            -3.2775229215621948e-01 1.8019078671932220e-01</leafValues></_>
        <_>
          <internalNodes>
            0 -1 77 11204756 -1098973801 -1076036195 539503270
            -1141506628 -277913605 360181644 679813416</internalNodes>
          <leafValues>
            -4.0583959221839905e-01 1.4225004613399506e-01</leafValues></_>
        <_>
          <internalNodes>
            0 -1 119 -318822641 1999630103 -353388422 -232612029
            -857258419 -12707250 -390083361 -266141949</internalNodes>
          <leafValues>
            -2.5190368294715881e-01 2.3449461162090302e-01</leafValues></_>
        <_>
          <internalNodes>
            0 -1 60 -454053961 -2101950681 -251976654 -1375769438
            133559751 1297930173 -2000743193 -33562689</internalNodes>
          <leafValues>
            -2.1026511490345001e-01 2.7592253684997559e-01</leafValues></_>
        <_>
          <internalNodes>
            0 -1 206 -1497862156 -2599307 -1078018081 -4538787
            -419652164 -1091522571 -339918913 -1079047141</internalNodes>
          <leafValues>
            -1.8586565554141998e-01 3.0719968676567078e-01</leafValues></_>
        <_>
          <internalNodes>
            0 -1 323 -285212761 -1485598969 -84431134 -739070046
            1142810564 102229319 -940071484 -252706889</internalNodes>
          <leafValues>
            -2.2794270515441895e-01 2.5044783949851990e-01</leafValues></_>
        <_>
          <internalNodes>
            0 -1 146 -179177552 1347483536 -54249936 -722078520
            1430584815 145549696 -1755199197 1437183930</internalNodes>
          <leafValues>
            -2.8179380297660828e-01 1.9961929321289062e-01</leafValues></_>
        <_>
          <internalNodes>
            0 -1 250 -1357902572 -43106377 -8732673 -217620 -1233900075
            -5849093 -822468935 -1393556188</internalNodes>
          <leafValues>
            -3.0163162946701050e-01 1.9189998507499695e-01</leafValues></_>
        <_>
          <internalNodes>
            0 -1 315 -6381 15573199 -156907884 -117444657 1193783971
            326494036 698848395 -206579825</internalNodes>
          <leafValues>
            -2.0216277241706848e-01 2.8368413448333740e-01</leafValues></_>
        <_>
          <internalNodes>
            0 -1 49 -496177660 1492824047 -25931945 1095183343
            -260671660 -59249666 -169390273 2138009595</internalNodes>
          <leafValues>
            -2.8740337491035461e-01 1.9383653998374939e-01</leafValues></_>
        <_>
          <internalNodes>
            0 -1 190 1819430260 1584926591 -1225110017 -1090908870
            -288078763 -67273218 -286503746 -1364579782</internalNodes>
          <leafValues>
            -2.8685954213142395e-01 1.9132442772388458e-01</leafValues></_>
        <_>
          <internalNodes>
            0 -1 305 -151523417 -1897857137 -25982 -1430590648
            1305995013 108494749 -168090112 -186144826</internalNodes>
          <leafValues>
            -3.0417290329933167e-01 1.8276043236255646e-01</leafValues></_>
        <_>
          <internalNodes>
            0 -1 252 275050086 903149500 2130349789 -1212874939
            1430585583 -1090981889 853868703 1073312703</internalNodes>
          <leafValues>
            -2.9653826355934143e-01 1.8182782828807831e-01</leafValues></_>
        <_>
          <internalNodes>
            0 -1 0 -436731907 -402598720 -524557128 -105137748
            -1803369003 30746407 -1353218384 -1074814977</internalNodes>
          <leafValues>
            -1.8401047587394714e-01 3.0135256052017212e-01</leafValues></_>
        <_>
          <internalNodes>
            0 -1 53 -823660785 1689187079 -218128194 -488442834
            -167817404 1146470214 -721718236 -252196926</internalNodes>
          <leafValues>
            -3.1387981772422791e-01 1.8093559145927429e-01</leafValues></_>
        <_>
          <internalNodes>
            0 -1 181 -134748241 838071222 1692523526 -237767185
            1991666935 -244091402 -422641937 -89849898</internalNodes>
          <leafValues>
            -1.7753212153911591e-01 3.0730587244033813e-01</leafValues></_>
        <_>
          <internalNodes>
            0 -1 76 -1610802252 -419484289 -436793976 -1392595233
            -1084837035 -138412257 -15225072 -1893332919</internalNodes>
          <leafValues>
            -3.3208972215652466e-01 1.6312427818775177e-01</leafValues></_>
        <_>
          <internalNodes>
            0 -1 159 -386397147 -1103864409 -459265 -1087881811
            -855843595 -50442883 -1963283266 -1464553684</internalNodes>
          <leafValues>
            -2.4684299528598785e-01 2.1782529354095459e-01</leafValues></_>
        <_>
          <internalNodes>
            0 -1 219 82552462 363266021 -490312184 -34413018 838168555
            1952546596 -34210070 -247431363</internalNodes>
          <leafValues>
            -2.6034170389175415e-01 2.0903339982032776e-01</leafValues></_>
        <_>
          <internalNodes>
            0 -1 242 -1942860492 498240947 -205571651 -537563148
            702775277 -720923 -1346486337 -1427173953</internalNodes>
          <leafValues>
            -2.0364147424697876e-01 2.5232610106468201e-01</leafValues></_></weakClassifiers></_>
    <!-- stage 2 -->
    <_>
      <maxWeakCount>72</maxWeakCount>
      <stageThreshold>-1.3814679384231567e+00</stageThreshold>
      <weakClassifiers>
        <_>
          <internalNodes>
            0 -1 46 -285212673 -286326785 -1 -16842753 -268435457
            -268500993 -1 -1</internalNodes>
          <leafValues>
            -5.9491801261901855e-01 1.9709025323390961e-01</leafValues></_>
        <_>
          <internalNodes>
            0 -1 107 542572851 -16385 570368827 -16609 -1073758273
            -147713 -20545 -4214865</internalNodes>
          <leafValues>
            -3.8527205586433411e-01 3.2208022475242615e-01</leafValues></_>
        <_>
          <internalNodes>
            0 -1 247 -8393 -67108865 -1 -1 -262287 -8651137 -129 -1</internalNodes>
          <leafValues>
            -2.7501913905143738e-01 4.4145748019218445e-01</leafValues></_>
        <_>
          <internalNodes>
            0 -1 259 -805309453 -1062213709 1442828561 -706216461
            -603998277 -930099265 1431785809 -705169929</internalNodes>
          <leafValues>
            -3.0184671282768250e-01 3.0023863911628723e-01</leafValues></_>
        <_>
          <internalNodes>
            0 -1 268 -1060309820 1079047932 -327683 1910701942
            -453187090 -16910402 -67113217 -109314369</internalNodes>
          <leafValues>
            -3.9226040244102478e-01 2.2091047465801239e-01</leafValues></_>
        <_>
          <internalNodes>
            0 -1 43 -93324737 -148384193 -501023489 35847743 -159910909
            -44568745 -261685761 -262668289</internalNodes>
          <leafValues>
            -3.0155980587005615e-01 2.6954352855682373e-01</leafValues></_>
        <_>
          <internalNodes>
            0 -1 82 -767494336 -244206208 -16851467 -788558 1363533680
            -4714 1691735284 -537672223</internalNodes>
          <leafValues>
            -3.6666005849838257e-01 2.0717987418174744e-01</leafValues></_>
        <_>
          <internalNodes>
            0 -1 310 -249 2012708703 -26331265 1110638591 2147419140
            1494292305 -1359075828 -13369521</internalNodes>
          <leafValues>
            -2.4994042515754700e-01 2.7312767505645752e-01</leafValues></_>
        <_>
          <internalNodes>
            0 -1 211 -319760523 -2330785 -33619969 -332945 -186851331
            -65601 -286326788 -1431674588</internalNodes>
          <leafValues>
            -2.4869160354137421e-01 2.5962281227111816e-01</leafValues></_>
        <_>
          <internalNodes>
            0 -1 126 -18875661 -2097409 1275111424 -858916101 -279449741
            -34 -564794795 -581584133</internalNodes>
          <leafValues>
            -2.1210472285747528e-01 2.9934310913085938e-01</leafValues></_>
        <_>
          <internalNodes>
            0 -1 2 -336613393 715829162 -1879589423 -1410461920
            619706367 1610677759 1375720823 -1043343873</internalNodes>
          <leafValues>
            -2.4880728125572205e-01 2.3759354650974274e-01</leafValues></_>
        <_>
          <internalNodes>
            0 -1 289 -1073764589 989854847 -1375748209 -1073750289
            -73422196 -1080109153 -1392595832 -1462767713</internalNodes>
          <leafValues>
            -2.0353417098522186e-01 3.0105030536651611e-01</leafValues></_>
        <_>
          <internalNodes>
            0 -1 243 203575568 -1464312528 -1207959563 -1107301072
            -1346502731 -1074003971 -1342554947 -1342236240</internalNodes>
          <leafValues>
            -2.8440058231353760e-01 2.0062424242496490e-01</leafValues></_>
        <_>
          <internalNodes>
            0 -1 223 -1833659088 -33806468 -1074946049 -1076621444
            -1439646288 -1090771019 -1120092231 -1346696150</internalNodes>
          <leafValues>
            -2.1346031129360199e-01 2.4875862896442413e-01</leafValues></_>
        <_>
          <internalNodes>
            0 -1 281 -268435525 1219424179 -1090526830 -1743127110
            1473771515 1216782263 1391940992 -780142861</internalNodes>
          <leafValues>
            -2.5104442238807678e-01 2.0750088989734650e-01</leafValues></_>
        <_>
          <internalNodes>
            0 -1 161 -41881972 -774656009 1699782809 1375185066
            1965323695 -34209809 1937122474 2012414634</internalNodes>
          <leafValues>
            -2.7509924769401550e-01 1.8804475665092468e-01</leafValues></_>
        <_>
          <internalNodes>
            0 -1 21 -28836313 821034607 1793737322 1893917282 -143139579
            1970796407 -347094258 -193469325</internalNodes>
          <leafValues>
            -2.9303923249244690e-01 1.8014311790466309e-01</leafValues></_>
        <_>
          <internalNodes>
            0 -1 114 1145238082 4646606 1193755179 598470383 1146373892
            -891465966 -809742769 1331650127</internalNodes>
          <leafValues>
            -3.4504273533821106e-01 1.4232923090457916e-01</leafValues></_>
        <_>
          <internalNodes>
            0 -1 98 -1534056908 -1359986792 -1654787 -250956 -1107693569
            -34234369 -708611 -779004</internalNodes>
          <leafValues>
            -2.6280352473258972e-01 1.9101567566394806e-01</leafValues></_>
        <_>
          <internalNodes>
            0 -1 218 -487608794 539163623 -419503102 -1434588758
            1962304277 1685454695 -202021372 -253496218</internalNodes>
          <leafValues>
            -3.2092991471290588e-01 1.5032005310058594e-01</leafValues></_>
        <_>
          <internalNodes>
            0 -1 299 -1414550653 -1574519934 -1843449168 -5040928
            -2064912565 101687295 15697092 -979910524</internalNodes>
          <leafValues>
            -2.6498237252235413e-01 1.8594807386398315e-01</leafValues></_>
        <_>
          <internalNodes>
            0 -1 48 1794060031 -68507734 -1757369 -1954270 1337683963
            -342899713 -4292737 -563657</internalNodes>
          <leafValues>
            -1.8668605387210846e-01 2.5778871774673462e-01</leafValues></_>
        <_>
          <internalNodes>
            0 -1 257 674649520 -1189023952 -1342243175 -1078124380
            881917436 -1113731113 -1157874248 -1363473217</internalNodes>
          <leafValues>
            -2.1204480528831482e-01 2.1852050721645355e-01</leafValues></_>
        <_>
          <internalNodes>
            0 -1 96 42862549 -83951617 -524291 -1100808278 -1149241395
            -33620482 -540787 1018521230</internalNodes>
          <leafValues>
            -2.4819387495517731e-01 1.8605096638202667e-01</leafValues></_>
        <_>
          <internalNodes>
            0 -1 39 -160171229 1899494127 -1426937302 540213802
            1599330052 -59248778 -817377460 -681065781</internalNodes>
          <leafValues>
            -2.4750739336013794e-01 1.8733555078506470e-01</leafValues></_>
        <_>
          <internalNodes>
            0 -1 174 1940041652 -68374545 -41960513 -639587154
            2147448820 -1 1937702912 1939997314</internalNodes>
          <leafValues>
            -3.1453254818916321e-01 1.4661233127117157e-01</leafValues></_>
        <_>
          <internalNodes>
            0 -1 321 -13631741 202374822 -1090522864 -1229455372
            1207944455 1165352935 -939526924 -167790865</internalNodes>
          <leafValues>
            -2.3227828741073608e-01 1.9712090492248535e-01</leafValues></_>
        <_>
          <internalNodes>
            0 -1 205 -554683984 -115302921 -1074807331 -1073871682
            -1185629788 -130760719 -1082376264 -1078262374</internalNodes>
          <leafValues>
            -1.7799918353557587e-01 2.5959333777427673e-01</leafValues></_>
        <_>
          <internalNodes>
            0 -1 325 -134218484 -227082979 -1292213444 -228424469
            -697007040 872709991 -453015276 -201392129</internalNodes>
          <leafValues>
            -2.2683568298816681e-01 1.9871684908866882e-01</leafValues></_>
        <_>
          <internalNodes>
            0 -1 91 -17072101 2077705535 1946343387 50494463 -126828310
            -847297005 -556728610 -11284705</internalNodes>
          <leafValues>
            -1.5735700726509094e-01 2.8503182530403137e-01</leafValues></_>
        <_>
          <internalNodes>
            0 -1 36 -458494418 6319979 -295263584 550677038 1639015493
            1077268309 -419461338 -201588849</internalNodes>
          <leafValues>
            -3.0065947771072388e-01 1.4128425717353821e-01</leafValues></_>
        <_>
          <internalNodes>
            0 -1 18 8400496 -1594470662 -1347736003 800042043 1164279392
            -973318664 804597567 530525979</internalNodes>
          <leafValues>
            -3.9269882440567017e-01 1.1055342108011246e-01</leafValues></_>
        <_>
          <internalNodes>
            0 -1 246 719994417 -1364318854 -1612173441 -1076078738
            -53483 -88098892 -319656620 -63428283</internalNodes>
          <leafValues>
            -3.1047657132148743e-01 1.3708569109439850e-01</leafValues></_>
        <_>
          <internalNodes>
            0 -1 187 -22933644 1546919934 -134580225 536547199
            -197915448 -83919427 -1103302980 -1078250997</internalNodes>
          <leafValues>
            -1.8327353894710541e-01 2.4228863418102264e-01</leafValues></_>
        <_>
          <internalNodes>
            0 -1 197 -426013664 -1598767274 -134254808 686682020
            -147949823 -486735945 -571612 -352391420</internalNodes>
          <leafValues>
            -2.9859414696693420e-01 1.5121477842330933e-01</leafValues></_>
        <_>
          <internalNodes>
            0 -1 185 -86844208 -570662987 -1210163201 -164354
            -1091252240 -1174915083 -1410289670 -1078252293</internalNodes>
          <leafValues>
            -1.4127622544765472e-01 3.1942486763000488e-01</leafValues></_>
        <_>
          <internalNodes>
            0 -1 133 -454165276 -1065943686 -864031675 -320406324
            -1325944332 -34082313 -2139701117 13627247</internalNodes>
          <leafValues>
            -3.1773298978805542e-01 1.3862591981887817e-01</leafValues></_>
        <_>
          <internalNodes>
            0 -1 57 -135271926 1447230835 -1272011086 -265898458
            -925940916 1075924828 -1328049016 -222829569</internalNodes>
          <leafValues>
            -2.2910730540752411e-01 1.8884834647178650e-01</leafValues></_>
        <_>
          <internalNodes>
            0 -1 294 10128384 378601435 -67191243 -1124291092 1711015924
            -1931692161 -270614604 -1395095580</internalNodes>
          <leafValues>
            -3.0205860733985901e-01 1.4130568504333496e-01</leafValues></_>
        <_>
          <internalNodes>
            0 -1 144 -1932646400 209243858 1057504157 -828627175
            735861008 -17044740 -1423328768 -1359205332</internalNodes>
          <leafValues>
            -3.5584062337875366e-01 1.1734767258167267e-01</leafValues></_>
        <_>
          <internalNodes>
            0 -1 318 -469766230 -1977356447 -1313160416 -181168318
            1156561056 69455738 -438050352 -134222409</internalNodes>
          <leafValues>
            -2.1763822436332703e-01 1.9088698923587799e-01</leafValues></_>
        <_>
          <internalNodes>
            0 -1 110 36569124 1017429944 -318965765 2029839270
            1575321588 -602439873 -167813131 -57966688</internalNodes>
          <leafValues>
            -3.0348971486091614e-01 1.3787309825420380e-01</leafValues></_>
        <_>
          <internalNodes>
            0 -1 28 -252714998 1367401997 -252120926 -217859677
            -839987700 1196378886 -1770266440 -139466865</internalNodes>
          <leafValues>
            -1.6379062831401825e-01 2.6090925931930542e-01</leafValues></_>
        <_>
          <internalNodes>
            0 -1 209 179706992 1069309904 -212995 -1141850128
            -1703588643 -434689 -1090617349 -1346687945</internalNodes>
          <leafValues>
            -2.1931073069572449e-01 1.9363436102867126e-01</leafValues></_>
        <_>
          <internalNodes>
            0 -1 29 -433329174 -2147310712 -1560320864 -484249820
            1709532485 90208230 1102582849 1438357501</internalNodes>
          <leafValues>
            -3.1901985406875610e-01 1.2997348606586456e-01</leafValues></_>
        <_>
          <internalNodes>
            0 -1 111 -707660976 -705298958 -191863280 1355905768
            -1211781329 -1938498653 2146897408 1078058496</internalNodes>
          <leafValues>
            -3.0575215816497803e-01 1.2908194959163666e-01</leafValues></_>
        <_>
          <internalNodes>
            0 -1 264 -2078097484 -1482666064 -72094727 -1212504780
            -1383400731 -1389494409 -1929788179 -1363487580</internalNodes>
          <leafValues>
            -2.3590081930160522e-01 1.7684407532215118e-01</leafValues></_>
        <_>
          <internalNodes>
            0 -1 314 -134229247 349163519 -1372076265 -1326711075
            123674755 929381681 -285801336 -429656081</internalNodes>
          <leafValues>
            -1.9686573743820190e-01 2.0607109367847443e-01</leafValues></_>
        <_>
          <internalNodes>
            0 -1 239 -436215561 1296167228 -1049645008 218292271
            -177221381 1816981307 1613992114 -955515925</internalNodes>
          <leafValues>
            -1.8633379042148590e-01 2.1574315428733826e-01</leafValues></_>
        <_>
          <internalNodes>
            0 -1 194 -823161325 -420827671 -272646465 1619698395 -135632
            -1075146863 -641532151 -1666706212</internalNodes>
          <leafValues>
            -2.0758032798767090e-01 1.9340337812900543e-01</leafValues></_>
        <_>
          <internalNodes>
            0 -1 100 1145361584 -1249860719 -674793611 227740338
            2113765372 -1073807361 -8945669 687826058</internalNodes>
          <leafValues>
            -2.7017977833747864e-01 1.4564073085784912e-01</leafValues></_>
        <_>
          <internalNodes>
            0 -1 72 -4825 -617119949 -266153647 -248251549 -687978993
            -586199281 -1560820498 -144705633</internalNodes>
          <leafValues>
            -1.2421532720327377e-01 3.2785063982009888e-01</leafValues></_>
        <_>
          <internalNodes>
            0 -1 127 -595947601 327089599 -1216894277 296658858
            -142869619 1069416447 -8738646 837790376</internalNodes>
          <leafValues>
            -2.1310269832611084e-01 1.8451102077960968e-01</leafValues></_>
        <_>
          <internalNodes>
            0 -1 6 -831549826 543353450 -270628335 421665816 1148681244
            1884518191 2113394293 -28325666</internalNodes>
          <leafValues>
            -2.5852841138839722e-01 1.6050758957862854e-01</leafValues></_>
        <_>
          <internalNodes>
            0 -1 208 -1194683440 2062832437 -1141096449 -136704647
            -1497801223 -1125851163 -16795649 -1413862082</internalNodes>
          <leafValues>
            -1.6878445446491241e-01 2.3357373476028442e-01</leafValues></_>
        <_>
          <internalNodes>
            0 -1 89 -211825957 -71576893 -1335738849 807647818
            -891272106 1482557174 -84486709 -8955061</internalNodes>
          <leafValues>
            -1.6635693609714508e-01 2.3844672739505768e-01</leafValues></_>
        <_>
          <internalNodes>
            0 -1 301 -1231034608 1073803164 716487316 1723858669
            372584497 1576358962 670511167 -1178603365</internalNodes>
          <leafValues>
            -2.8953623771667480e-01 1.3852579891681671e-01</leafValues></_>
        <_>
          <internalNodes>
            0 -1 270 -701498630 -719265680 368784764 -601436952 42968546
            -1626213900 1096111436 -602291078</internalNodes>
          <leafValues>
            -2.0372217893600464e-01 1.8895901739597321e-01</leafValues></_>
        <_>
          <internalNodes>
            0 -1 235 1348822158 1434316661 -1025601844 1032126156
            1885603061 -168460292 -1275523330 -679448662</internalNodes>
          <leafValues>
            -2.2694627940654755e-01 1.6633178293704987e-01</leafValues></_>
        <_>
          <internalNodes>
            0 -1 95 42657336 -419815908 -1077760241 -1987261697
            837924721 -51514627 -1620902127 -14832683</internalNodes>
          <leafValues>
            -2.3957531154155731e-01 1.6639398038387299e-01</leafValues></_>
        <_>
          <internalNodes>
            0 -1 227 217193840 -1262969005 -537493515 -1080421198
            704597877 -285224577 -1929434887 -1342559971</internalNodes>
          <leafValues>
            -2.6248016953468323e-01 1.5679986774921417e-01</leafValues></_>
        <_>
          <internalNodes>
            0 -1 324 -499127549 -2109948926 -1595026384 -257749048
            -871660081 84663087 -729816666 -236991793</internalNodes>
          <leafValues>
            -1.7538441717624664e-01 2.1914871037006378e-01</leafValues></_>
        <_>
          <internalNodes>
            0 -1 240 -66562928 -18868268 -1091589122 -8224582
            -1257383939 -1092231681 -73913924 -1953819477</internalNodes>
          <leafValues>
            -1.6334310173988342e-01 2.3403577506542206e-01</leafValues></_>
        <_>
          <internalNodes>
            0 -1 217 -994653150 14735348 -454923008 -2064167448
            935093300 -239433744 -256681470 -218635722</internalNodes>
          <leafValues>
            -2.5967845320701599e-01 1.4999710023403168e-01</leafValues></_>
        <_>
          <internalNodes>
            0 -1 47 709534387 -19517953 -1157698094 686432802 803958781
            -810240321 2143274877 1841587541</internalNodes>
          <leafValues>
            -2.8553307056427002e-01 1.3756644725799561e-01</leafValues></_>
        <_>
          <internalNodes>
            0 -1 334 174827347 360630884 1514671985 -1658276906
            1158975992 1073324020 -537375252 -144851974</internalNodes>
          <leafValues>
            -1.7110510170459747e-01 2.2567297518253326e-01</leafValues></_>
        <_>
          <internalNodes>
            0 -1 241 -595552976 -21482572 -1078035489 -574802660
            917913532 -1438896723 -1077002245 -1348794242</internalNodes>
          <leafValues>
            -1.6394744813442230e-01 2.3442094027996063e-01</leafValues></_>
        <_>
          <internalNodes>
            0 -1 288 -860577931 -1091248259 -50724929 -1614962785
            -420163660 -139299 -1745142864 -1360250076</internalNodes>
          <leafValues>
            -1.9110809266567230e-01 1.9628241658210754e-01</leafValues></_>
        <_>
          <internalNodes>
            0 -1 52 -496297202 1584397855 -227091682 1624172608
            -234948697 -974915073 -6947024 -724045613</internalNodes>
          <leafValues>
            -2.5244846940040588e-01 1.5063360333442688e-01</leafValues></_>
        <_>
          <internalNodes>
            0 -1 200 -247346642 559539025 -331305328 94873099 1146143340
            -1251680266 544146174 558172842</internalNodes>
          <leafValues>
            -2.4492019414901733e-01 1.5338906645774841e-01</leafValues></_>
        <_>
          <internalNodes>
            0 -1 192 2761984 512633486 1070622719 -135634362 -822352044
            -23068935 -2029095676 717358080</internalNodes>
          <leafValues>
            -4.4065761566162109e-01 8.3281874656677246e-02</leafValues></_>
        <_>
          <internalNodes>
            0 -1 183 -204476534 291692259 -36634641 -36962841 1203205757
            341278582 -303563313 -437786769</internalNodes>
          <leafValues>
            -1.7664663493633270e-01 2.1851770579814911e-01</leafValues></_></weakClassifiers></_>
    <!-- stage 3 -->
    <_>
      <maxWeakCount>100</maxWeakCount>
      <stageThreshold>-1.3891929388046265e+00</stageThreshold>
      <weakClassifiers>
        <_>
          <internalNodes>
            0 -1 173 -1 -1 -268439553 -1 -1 -1 805244687 -1</internalNodes>
          <leafValues>
            -4.9870175123214722e-01 1.9513574242591858e-01</leafValues></_>
        <_>
          <internalNodes>
            0 -1 129 -201350209 -134240257 -771841368 -4282198
            -201347137 -16385 -335836504 -5338488</internalNodes>
          <leafValues>
            -3.5713726282119751e-01 2.3147261142730713e-01</leafValues></_>
        <_>
          <internalNodes>
            0 -1 9 -268439553 -1342198097 -193 804982447 -4097 805007351
            -5 -4097</internalNodes>
          <leafValues>
            -2.6341110467910767e-01 3.0398371815681458e-01</leafValues></_>
        <_>
          <internalNodes>
            0 -1 273 -272630287 -843584032 -570960427 -571474447
            -1950357573 -1968177742 353849669 -840968747</internalNodes>
          <leafValues>
            -2.5926586985588074e-01 2.4040992558002472e-01</leafValues></_>
        <_>
          <internalNodes>
            0 -1 221 -33554689 -9443641 -499914062 -1373458902
            -193009921 -294719994 -126619398 572711458</internalNodes>
          <leafValues>
            -2.6942521333694458e-01 2.5244182348251343e-01</leafValues></_>
        <_>
          <internalNodes>
            0 -1 58 -92538241 -75501953 1612905215 187071 -227031465
            -280515053 -260964385 -245891073</internalNodes>
          <leafValues>
            -2.9362589120864868e-01 1.7047122120857239e-01</leafValues></_>
        <_>
          <internalNodes>
            0 -1 132 1968567728 1427158272 -176188400 -705186669
            -175787041 -1952450562 1442743519 -772812661</internalNodes>
          <leafValues>
            -2.5747907161712646e-01 2.2346460819244385e-01</leafValues></_>
        <_>
          <internalNodes>
            0 -1 276 -12583105 1430224767 -1077936577 -754974977
            -134367468 1433927509 -310968612 1902116863</internalNodes>
          <leafValues>
            -2.4784645438194275e-01 2.0715358853340149e-01</leafValues></_>
        <_>
          <internalNodes>
            0 -1 203 -419436766 7792547 -320148990 -1593858134
            1953855301 1156964223 -134895870 -201330737</internalNodes>
          <leafValues>
            -2.5784879922866821e-01 1.7506201565265656e-01</leafValues></_>
        <_>
          <internalNodes>
            0 -1 191 1146883156 -16875649 -285819169 1043992447
            -17035596 -4198531 -16897284 -1163251848</internalNodes>
          <leafValues>
            -3.0818727612495422e-01 1.2902441620826721e-01</leafValues></_>
        <_>
          <internalNodes>
            0 -1 251 4508868 871824269 -1536757761 -1079120161
            1884555695 -33587233 872351919 1073676975</internalNodes>
          <leafValues>
            -3.2193911075592041e-01 1.3675796985626221e-01</leafValues></_>
        <_>
          <internalNodes>
            0 -1 108 606472228 -33807220 362229631 -34591420 953421244
            -67211540 1023164415 -1091296416</internalNodes>
          <leafValues>
            -2.7697256207466125e-01 1.4353170990943909e-01</leafValues></_>
        <_>
          <internalNodes>
            0 -1 4 -273690625 -487673858 -604008461 -168362014 125302783
            1157037558 -142608557 -671615489</internalNodes>
          <leafValues>
            -2.0526346564292908e-01 2.1050623059272766e-01</leafValues></_>
        <_>
          <internalNodes>
            0 -1 304 -270539805 -957618486 -809506302 -930307574
            1701310978 1155000070 2003137536 1078458310</internalNodes>
          <leafValues>
            -3.7959218025207520e-01 9.5698788762092590e-02</leafValues></_>
        <_>
          <internalNodes>
            0 -1 71 -67116530 -228138162 -156860414 -252512250
            -746633906 1209498949 -19937074 -211288129</internalNodes>
          <leafValues>
            -2.0003506541252136e-01 1.8828475475311279e-01</leafValues></_>
        <_>
          <internalNodes>
            0 -1 62 905945649 -1090584833 -320935358 1223469600 -1180847
            -50485004 -2315776 -285365760</internalNodes>
          <leafValues>
            -2.4123182892799377e-01 1.5776906907558441e-01</leafValues></_>
        <_>
          <internalNodes>
            0 -1 260 -2010063440 -1657745616 -533007 -1078509792
            1035463933 -1619525705 -2000747087 -1342204745</internalNodes>
          <leafValues>
            -1.9908615946769714e-01 1.9441097974777222e-01</leafValues></_>
        <_>
          <internalNodes>
            0 -1 213 -298930656 46657125 -1073820153 -1430263002
            901060471 -19141633 -151095546 -286333148</internalNodes>
          <leafValues>
            -2.7059486508369446e-01 1.3624580204486847e-01</leafValues></_>
        <_>
          <internalNodes>
            0 -1 19 -1023415617 1366812667 -193966238 1910538831
            1903523619 1350401534 -44761277 -9441281</internalNodes>
          <leafValues>
            -1.5152440965175629e-01 2.4581106007099152e-01</leafValues></_>
        <_>
          <internalNodes>
            0 -1 166 1949453397 2113540083 -16843009 -1078841610
            -861254628 -41089 -285520129 -1078261213</internalNodes>
          <leafValues>
            -1.7964708805084229e-01 2.0551802217960358e-01</leafValues></_>
        <_>
          <internalNodes>
            0 -1 293 145885188 1037115582 635256767 502603773
            -1444632148 -1095319639 736144808 -1393283196</internalNodes>
          <leafValues>
            -2.6338979601860046e-01 1.3679811358451843e-01</leafValues></_>
        <_>
          <internalNodes>
            0 -1 329 -403182845 6670123 -1594193374 -218136670 14935299
            1145464951 -457194460 -150996993</internalNodes>
          <leafValues>
            -2.4266812205314636e-01 1.4718338847160339e-01</leafValues></_>
        <_>
          <internalNodes>
            0 -1 101 637535252 -1129828974 -144769027 -34065552
            -302153743 -655369 -181313 -1124850652</internalNodes>
          <leafValues>
            -2.4026630818843842e-01 1.4708243310451508e-01</leafValues></_>
        <_>
          <internalNodes>
            0 -1 201 -865670402 1342107325 169927745 -842273041
            -335479558 -831222564 -216952586 -45634322</internalNodes>
          <leafValues>
            -1.8183526396751404e-01 1.8845738470554352e-01</leafValues></_>
        <_>
          <internalNodes>
            0 -1 206 -534641552 -210499912 -1076027395 -570487107
            -1313030728 -19382383 -1112228102 -1342501879</internalNodes>
          <leafValues>
            -1.6540086269378662e-01 2.0550903677940369e-01</leafValues></_>
        <_>
          <internalNodes>
            0 -1 265 -1472321995 -30523521 -1929433473 -327402689
            -33718443 -25379465 -1116181168 -1632846145</internalNodes>
          <leafValues>
            -2.4749492108821869e-01 1.4256569743156433e-01</leafValues></_>
        <_>
          <internalNodes>
            0 -1 162 -8390662 1154544384 -320557504 -707422336
            -1068175313 212837343 -431690137 1371506410</internalNodes>
          <leafValues>
            -1.8511225283145905e-01 1.8314103782176971e-01</leafValues></_>
        <_>
          <internalNodes>
            0 -1 338 -492313973 -955816946 -225206046 -210540509
            -1052260945 84394254 -710229809 -202382357</internalNodes>
          <leafValues>
            -1.2289109826087952e-01 2.7546742558479309e-01</leafValues></_>
        <_>
          <internalNodes>
            0 -1 120 -1362744011 -1360199716 1607390013 -290689123
            -1142155403 -2132291 -180303 -1369428796</internalNodes>
          <leafValues>
            -2.6552471518516541e-01 1.2687104940414429e-01</leafValues></_>
        <_>
          <internalNodes>
            0 -1 92 -603986421 -101191389 -495262766 -215812234
            -307281842 1560497503 -142607878 -212598801</internalNodes>
          <leafValues>
            -1.3499888777732849e-01 2.5282216072082520e-01</leafValues></_>
        <_>
          <internalNodes>
            0 -1 245 -1431921776 -1985184324 1977591805 -134545412
            -1997623323 -27 -1598059076 -1459731280</internalNodes>
          <leafValues>
            -2.2775726020336151e-01 1.4495818316936493e-01</leafValues></_>
        <_>
          <internalNodes>
            0 -1 109 1145438080 835842999 -55126196 -1280597186
            357906100 -101318667 -537886892 -1782295340</internalNodes>
          <leafValues>
            -2.4072979390621185e-01 1.3934993743896484e-01</leafValues></_>
        <_>
          <internalNodes>
            0 -1 140 -662515520 -1073023194 189399819 585294859
            1162298692 -2162822 -253024767 -229145949</internalNodes>
          <leafValues>
            -2.9157674312591553e-01 1.1251714825630188e-01</leafValues></_>
        <_>
          <internalNodes>
            0 -1 296 -269484101 29094305 -1921007520 -843055743
            -925954565 -2002845789 1159022808 -577902390</internalNodes>
          <leafValues>
            -1.5361726284027100e-01 2.1728204190731049e-01</leafValues></_>
        <_>
          <internalNodes>
            0 -1 12 -352329206 2780832 227812432 -1826381818 1629954634
            477078 18176208 1934620411</internalNodes>
          <leafValues>
            -2.1592515707015991e-01 1.5021911263465881e-01</leafValues></_>
        <_>
          <internalNodes>
            0 -1 224 782638452 -1724875207 -1074571267 -311955 788447733
            -131619 -1409303553 -1342241537</internalNodes>
          <leafValues>
            -1.5725128352642059e-01 2.0866154134273529e-01</leafValues></_>
        <_>
          <internalNodes>
            0 -1 230 -1372964045 -1929625938 1335278559 -285414161
            -229548 -1612767237 -5443747 -539413243</internalNodes>
          <leafValues>
            -2.1212130784988403e-01 1.5305374562740326e-01</leafValues></_>
        <_>
          <internalNodes>
            0 -1 302 204189440 498644950 -1208747276 -17368652
            -1917059083 -34144267 -31500 -156307529</internalNodes>
          <leafValues>
            -2.1729001402854919e-01 1.5345121920108795e-01</leafValues></_>
        <_>
          <internalNodes>
            0 -1 169 -799406844 -791252257 -17106241 -147161813
            -1259336627 -536944641 -17117768 -89465046</internalNodes>
          <leafValues>
            -1.8425288796424866e-01 1.7621034383773804e-01</leafValues></_>
        <_>
          <internalNodes>
            0 -1 284 -614473086 187214624 1076715856 -237651423
            -1686271872 60674 -1066942336 -1997539358</internalNodes>
          <leafValues>
            -1.9992546737194061e-01 1.6023783385753632e-01</leafValues></_>
        <_>
          <internalNodes>
            0 -1 311 2134369570 1147578046 781119468 1289944050
            202846368 682399653 -1398626118 -777263510</internalNodes>
          <leafValues>
            -1.9505324959754944e-01 1.6565625369548798e-01</leafValues></_>
        <_>
          <internalNodes>
            0 -1 85 1189547670 -20512777 -1157709828 -1159529586
            -654881099 -546967555 -117768732 -252188684</internalNodes>
          <leafValues>
            -2.0424331724643707e-01 1.5662446618080139e-01</leafValues></_>
        <_>
          <internalNodes>
            0 -1 113 -823984462 -17503255 -1354592706 -1274130 26249632
            -722190128 1399855083 2138522647</internalNodes>
          <leafValues>
            -1.8697981536388397e-01 1.6845592856407166e-01</leafValues></_>
        <_>
          <internalNodes>
            0 -1 65 -1231023232 -890360652 -1351799025 751774446
            -78960336 -1426396827 -1074578654 -1075040371</internalNodes>
          <leafValues>
            -2.8157413005828857e-01 1.0883401334285736e-01</leafValues></_>
        <_>
          <internalNodes>
            0 -1 214 1081535150 862399935 -454250808 1945020584
            1080116477 -1090899969 -487235347 1916953856</internalNodes>
          <leafValues>
            -2.4652314186096191e-01 1.2714253365993500e-01</leafValues></_>
        <_>
          <internalNodes>
            0 -1 87 -185600081 -859312850 -352853984 -503126366
            -20494769 1562865477 -134851584 -186387289</internalNodes>
          <leafValues>
            -2.2431999444961548e-01 1.4255180954933167e-01</leafValues></_>
        <_>
          <internalNodes>
            0 -1 177 -1792039800 293584673 -445847418 328718504
            1450534381 892292171 1415243434 15197830</internalNodes>
          <leafValues>
            -2.3771797120571136e-01 1.3046804070472717e-01</leafValues></_>
        <_>
          <internalNodes>
            0 -1 147 -14686432 295649159 -1352470776 1576985977
            1442165152 -1511746642 -2824504 -1392839220</internalNodes>
          <leafValues>
            -1.7046734690666199e-01 1.8122275173664093e-01</leafValues></_>
        <_>
          <internalNodes>
            0 -1 308 -525359573 -1423180536 -1028133136 -231739912
            1081860431 256088927 -1040247611 -973088889</internalNodes>
          <leafValues>
            -1.8237544596195221e-01 1.6579547524452209e-01</leafValues></_>
        <_>
          <internalNodes>
            0 -1 138 -658447658 -691108634 573490775 -536970686
            1698793136 -789566204 1526729627 1526941219</internalNodes>
          <leafValues>
            -1.8109616637229919e-01 1.7046077549457550e-01</leafValues></_>
        <_>
          <internalNodes>
            0 -1 326 -34078972 1977684297 -153180528 -266177954
            1181117956 1953977205 -220016400 1928779263</internalNodes>
          <leafValues>
            -2.3466664552688599e-01 1.3044966757297516e-01</leafValues></_>
        <_>
          <internalNodes>
            0 -1 290 814220560 -1095483393 -538973185 -1140986371
            -1611299363 -627245098 -1090605060 -1431257184</internalNodes>
          <leafValues>
            -1.8864585459232330e-01 1.5766936540603638e-01</leafValues></_>
        <_>
          <internalNodes>
            0 -1 86 -621281773 -256188453 -263309 -1330381677 -142164211
            -892149825 -45248 -565191457</internalNodes>
          <leafValues>
            -1.3146291673183441e-01 2.2982317209243774e-01</leafValues></_>
        <_>
          <internalNodes>
            0 -1 73 1009951410 -461757318 1463697167 -811193131
            -140562809 -855672066 -1644318857 -1027</internalNodes>
          <leafValues>
            -1.8573950231075287e-01 1.6614979505538940e-01</leafValues></_>
        <_>
          <internalNodes>
            0 -1 223 -290013456 -17520907 -1229054377 -38198275
            -23415404 -53690948 993672126 -1096151653</internalNodes>
          <leafValues>
            -1.4882911741733551e-01 2.0483998954296112e-01</leafValues></_>
        <_>
          <internalNodes>
            0 -1 41 -33567985 2085937495 -1863605754 -233671309
            -998306545 1543920972 -533755764 -160181889</internalNodes>
          <leafValues>
            -1.6776834428310394e-01 1.7496706545352936e-01</leafValues></_>
        <_>
          <internalNodes>
            0 -1 124 167596372 772208067 -1896894530 -809554498
            -67930251 -34701323 -276849352 205164335</internalNodes>
          <leafValues>
            -2.3373225331306458e-01 1.2646608054637909e-01</leafValues></_>
        <_>
          <internalNodes>
            0 -1 64 703642453 620560300 1705024379 166177467 1885396761
            1977892725 1790581538 2074852010</internalNodes>
          <leafValues>
            -2.1268701553344727e-01 1.3675409555435181e-01</leafValues></_>
        <_>
          <internalNodes>
            0 -1 282 -208670574 2030096122 -1179699456 285238976
            -976780128 37848248 -245160832 -2146708850</internalNodes>
          <leafValues>
            -1.9811642169952393e-01 1.4862880110740662e-01</leafValues></_>
        <_>
          <internalNodes>
            0 -1 193 1890227991 1361995775 -2215937 -51490930 -603980299
            -4456483 -673289052 1001738112</internalNodes>
          <leafValues>
            -1.9493024051189423e-01 1.5725441277027130e-01</leafValues></_>
        <_>
          <internalNodes>
            0 -1 222 -86991184 -589822608 -1208049729 -88354 -13254659
            -53133575 1068973802 -1414853957</internalNodes>
          <leafValues>
            -1.2947955727577209e-01 2.2053045034408569e-01</leafValues></_>
        <_>
          <internalNodes>
            0 -1 279 -995103504 -2071134316 -2137219940 429587164
            1096110256 -841877131 1503742120 -573049901</internalNodes>
          <leafValues>
            -2.6933923363685608e-01 1.0850253701210022e-01</leafValues></_>
        <_>
          <internalNodes>
            0 -1 67 -352385297 1925099519 1592469106 -84754456 115304558
            -1645224075 -151569462 -151570526</internalNodes>
          <leafValues>
            -1.7606402933597565e-01 1.6566541790962219e-01</leafValues></_>
        <_>
          <internalNodes>
            0 -1 142 -1506013423 -2005381121 -271839457 -50529041
            2147311477 -263178 -1149240543 -353531002</internalNodes>
          <leafValues>
            -1.8626391887664795e-01 1.5604713559150696e-01</leafValues></_>
        <_>
          <internalNodes>
            0 -1 29 -490803290 -527651360 -1594470292 -1427493344
            -2059360287 1155653483 -1058556512 1945581053</internalNodes>
          <leafValues>
            -2.5537285208702087e-01 1.1767496168613434e-01</leafValues></_>
        <_>
          <internalNodes>
            0 -1 198 1409262326 -1017863584 1815904800 -975833517
            1886710366 1998392087 1986045182 2064844426</internalNodes>
          <leafValues>
            -1.8212495744228363e-01 1.6305708885192871e-01</leafValues></_>
        <_>
          <internalNodes>
            0 -1 271 1123001504 69931824 -1233011024 -1073742431
            -561019475 793225073 145720756 -1467220769</internalNodes>
          <leafValues>
            -1.8860228359699249e-01 1.5867559611797333e-01</leafValues></_>
        <_>
          <internalNodes>
            0 -1 158 -868738028 -1872722059 -68571139 -1216864335
            805048221 -17327393 -1090878036 -1364562140</internalNodes>
          <leafValues>
            -2.0337362587451935e-01 1.3920040428638458e-01</leafValues></_>
        <_>
          <internalNodes>
            0 -1 44 -961812982 2100295939 -487460639 -207880926
            1102831631 1163787853 -792739605 -678702097</internalNodes>
          <leafValues>
            -1.2933203577995300e-01 2.2493310272693634e-01</leafValues></_>
        <_>
          <internalNodes>
            0 -1 3 1210830350 809806410 -35857099 -539032556 1508216632
            -621189371 1148582524 -362425314</internalNodes>
          <leafValues>
            -1.8330165743827820e-01 1.5748491883277893e-01</leafValues></_>
        <_>
          <internalNodes>
            0 -1 112 1376683162 1391095323 573294634 -1304432606
            1086638836 1211111668 -967799274 1599291398</internalNodes>
          <leafValues>
            -2.3989382386207581e-01 1.1691755056381226e-01</leafValues></_>
        <_>
          <internalNodes>
            0 -1 262 539030896 -1246229215 -1365262339 -1074045021
            -1460663903 -1885373957 -1594153799 -1946221435</internalNodes>
          <leafValues>
            -1.9433906674385071e-01 1.4508323371410370e-01</leafValues></_>
        <_>
          <internalNodes>
            0 -1 220 1486873742 290978527 -361794172 -1108353085
            880238013 -173736734 -100663413 -1331298305</internalNodes>
          <leafValues>
            -1.6677670180797577e-01 1.7041361331939697e-01</leafValues></_>
        <_>
          <internalNodes>
            0 -1 274 -683693422 -201654841 -1116405072 -572524559
            -1074579200 -1115679932 -1409470710 -33554529</internalNodes>
          <leafValues>
            -1.3707357645034790e-01 2.0602738857269287e-01</leafValues></_>
        <_>
          <internalNodes>
            0 -1 307 -1431329118 -2044530174 -504141328 -750061786
            637441839 210171223 1438381188 -978590313</internalNodes>
          <leafValues>
            -2.0114068686962128e-01 1.4089643955230713e-01</leafValues></_>
        <_>
          <internalNodes>
            0 -1 188 1991396436 851054591 -84262977 -1447674853
            -34059147 -299009 -189329910 -1090900357</internalNodes>
          <leafValues>
            -2.0149604976177216e-01 1.3834495842456818e-01</leafValues></_>
        <_>
          <internalNodes>
            0 -1 54 -16806153 995597951 1109580346 359389750 -1763024796
            -1158167867 -546902818 -132276550</internalNodes>
          <leafValues>
            -1.3312162458896637e-01 2.1155777573585510e-01</leafValues></_>
        <_>
          <internalNodes>
            0 -1 14 -227050473 337673846 1601871472 -36774797 -598398487
            943766782 1581645405 -57297417</internalNodes>
          <leafValues>
            -1.5012635290622711e-01 1.8631789088249207e-01</leafValues></_>
        <_>
          <internalNodes>
            0 -1 79 75777920 162834337 -287912545 665717539 1967412484
            -1075025153 -111909 716123051</internalNodes>
          <leafValues>
            -3.5766613483428955e-01 7.7268555760383606e-02</leafValues></_>
        <_>
          <internalNodes>
            0 -1 24 -688914466 -51556354 -11817234 -288886801 -134879275
            1147597494 -1082134712 1945107821</internalNodes>
          <leafValues>
            -2.4738012254238129e-01 1.0937253385782242e-01</leafValues></_>
        <_>
          <internalNodes>
            0 -1 155 1086601459 148759244 -62068203 1321003768
            -1360710864 -36378625 2084647440 1145869008</internalNodes>
          <leafValues>
            -2.3955276608467102e-01 1.1622101813554764e-01</leafValues></_>
        <_>
          <internalNodes>
            0 -1 118 1549484254 1383730942 -1201512717 17030750
            -728106872 -286282114 -554631208 -565979525</internalNodes>
          <leafValues>
            -1.5101040899753571e-01 1.8331800401210785e-01</leafValues></_>
        <_>
          <internalNodes>
            0 -1 319 -426747 1920221079 -35409118 -256360989 -317565392
            822402661 -1124801374 1945021375</internalNodes>
          <leafValues>
            -2.0449309051036835e-01 1.3580973446369171e-01</leafValues></_>
        <_>
          <internalNodes>
            0 -1 328 -234883294 -755318144 218310148 -1745390078
            543295408 1287791988 1148635009 1979434495</internalNodes>
          <leafValues>
            -1.8286156654357910e-01 1.4745031297206879e-01</leafValues></_>
        <_>
          <internalNodes>
            0 -1 280 282724866 -791179665 -1864212816 1481940252
            1615203984 -126296860 -16826640 -174977136</internalNodes>
          <leafValues>
            -2.3374922573566437e-01 1.1716976761817932e-01</leafValues></_>
        <_>
          <internalNodes>
            0 -1 182 -1514149120 687267623 -220284412 -268447831
            -957260331 746060543 -604179163 -973746436</internalNodes>
          <leafValues>
            -1.9907943904399872e-01 1.3577070832252502e-01</leafValues></_>
        <_>
          <internalNodes>
            0 -1 26 -146933620 -233011120 559733905 1886771471
            -352128600 806490144 758159787 2075131822</internalNodes>
          <leafValues>
            -1.4536218345165253e-01 1.8720059096813202e-01</leafValues></_>
        <_>
          <internalNodes>
            0 -1 171 646587904 2110689263 -174184132 -487837970
            -1078493772 -134332417 1391788032 1604323840</internalNodes>
          <leafValues>
            -3.9334243535995483e-01 7.0350028574466705e-02</leafValues></_>
        <_>
          <internalNodes>
            0 -1 153 -967702395 -1939969282 1336581443 -334987522
            -71352784 -156980772 -74196183 -554771744</internalNodes>
          <leafValues>
            -2.0635458827018738e-01 1.3143169879913330e-01</leafValues></_>
        <_>
          <internalNodes>
            0 -1 320 -25189345 2135162639 -96813142 -1137283286
            1220541508 1596669814 -1376613718 -385880213</internalNodes>
          <leafValues>
            -1.4415240287780762e-01 1.9200870394706726e-01</leafValues></_>
        <_>
          <internalNodes>
            0 -1 186 -460066800 337051550 -1654663631 -1945633313
            -1594491471 -1126910415 -348587224 672135983</internalNodes>
          <leafValues>
            -1.8140599131584167e-01 1.4938873052597046e-01</leafValues></_>
        <_>
          <internalNodes>
            0 -1 165 -1006447884 673233760 718220239 -1347441047
            1172718656 -562579056 -1074969333 -1892728665</internalNodes>
          <leafValues>
            -1.9853723049163818e-01 1.3859501481056213e-01</leafValues></_>
        <_>
          <internalNodes>
            0 -1 145 -900421104 -1051404464 -1543495935 1414904444
            -1035667912 -625058864 1667545803 -51514874</internalNodes>
          <leafValues>
            -2.5378564000129700e-01 1.1152245104312897e-01</leafValues></_>
        <_>
          <internalNodes>
            0 -1 63 -1567445082 1721945522 -17844496 -532993104
            -269774865 -973280081 -195722009 -2047930376</internalNodes>
          <leafValues>
            -2.1650135517120361e-01 1.3707405328750610e-01</leafValues></_>
        <_>
          <internalNodes>
            0 -1 298 -475533406 67296544 -1191190896 -13451598 192663457
            389388917 1276581504 -1040976425</internalNodes>
          <leafValues>
            -2.1304133534431458e-01 1.3267503678798676e-01</leafValues></_>
        <_>
          <internalNodes>
            0 -1 337 -961877250 -266693600 56641073 1974013149
            -761232910 -1542323740 1102444454 -536888338</internalNodes>
          <leafValues>
            -1.2641040980815887e-01 2.1624508500099182e-01</leafValues></_>
        <_>
          <internalNodes>
            0 -1 234 2062541994 886765254 -152316638 -354141500
            839259572 -264282115 -211288852 -250157467</internalNodes>
          <leafValues>
            -1.7681862413883209e-01 1.5280887484550476e-01</leafValues></_>
        <_>
          <internalNodes>
            0 -1 81 2055735376 -668417664 -1079038561 -206962016
            993601265 -1376387073 -10211689 -7863019</internalNodes>
          <leafValues>
            -1.7543418705463409e-01 1.5315020084381104e-01</leafValues></_>
        <_>
          <internalNodes>
            0 -1 94 37765185 -1362313874 2147344249 -1404293318 -8655651
            -1344948769 -1111065348 680018981</internalNodes>
          <leafValues>
            -3.1198883056640625e-01 8.6711466312408447e-02</leafValues></_>
        <_>
          <internalNodes>
            0 -1 335 -336605694 292448892 -1265074148 795738800
            1380392755 232077299 -384368440 1876355595</internalNodes>
          <leafValues>
            -1.9354815781116486e-01 1.4060212671756744e-01</leafValues></_></weakClassifiers></_>
    <!-- stage 4 -->
    <_>
      <maxWeakCount>100</maxWeakCount>
      <stageThreshold>-4.1034558415412903e-01</stageThreshold>
      <weakClassifiers>
        <_>
          <internalNodes>
            0 -1 231 -134221825 -2752537 -68686081 -8393729 586875583
            -4469253 316096733 1073169920</internalNodes>
          <leafValues>
            2.5569298863410950e-01 7.0913726091384888e-01</leafValues></_>
        <_>
          <internalNodes>
            0 -1 51 -1032919297 -21065 -17944577 -36865 -134217729
            -16781313 -8388609 -1121</internalNodes>
          <leafValues>
            -7.9984262585639954e-02 4.8520848155021667e-01</leafValues></_>
        <_>
          <internalNodes>
            0 -1 278 -536870977 -556924929 -1108414465 -33554693
            -134267095 536682303 -1073927157 -65</internalNodes>
          <leafValues>
            -2.1578906476497650e-01 3.0940410494804382e-01</leafValues></_>
        <_>
          <internalNodes>
            0 -1 121 1004535807 -1819551870 -570425861 833147810
            -638588993 -538970675 -1078984790 815921066</internalNodes>
          <leafValues>
            -2.9343354701995850e-01 1.7964266240596771e-01</leafValues></_>
        <_>
          <internalNodes>
            0 -1 189 -836968592 -826352392 -1654186507 -1344353313
            -562365392 -289892176 -1075881155 -284933</internalNodes>
          <leafValues>
            -2.8470185399055481e-01 1.5349729359149933e-01</leafValues></_>
        <_>
          <internalNodes>
            0 -1 167 -50443179 -537000579 -220305921 -1162848961
            -1400371043 -17762121 -1090896193 -21357014</internalNodes>
          <leafValues>
            -2.0872084796428680e-01 2.0904676616191864e-01</leafValues></_>
        <_>
          <internalNodes>
            0 -1 258 671226928 321045808 -541132303 -1074583759
            212670885 -1078984785 -1901189703 -1342504453</internalNodes>
          <leafValues>
            -2.3680500686168671e-01 1.7376355826854706e-01</leafValues></_>
        <_>
          <internalNodes>
            0 -1 61 -352600129 -1896554475 -271613509 -285233025
            -1351687233 -1013319174 -39069713 -544211457</internalNodes>
          <leafValues>
            -2.0731472969055176e-01 2.0835992693901062e-01</leafValues></_>
        <_>
          <internalNodes>
            0 -1 69 -109709840 -705298443 1909711614 -235671838
            -751323343 -26172910 2013123576 1431765056</internalNodes>
          <leafValues>
            -2.4963219463825226e-01 1.6644671559333801e-01</leafValues></_>
        <_>
          <internalNodes>
            0 -1 253 -916458241 135195924 -599271248 -871377246
            -278930961 1278165107 1358905584 -788005150</internalNodes>
          <leafValues>
            -2.4148419499397278e-01 1.7813003063201904e-01</leafValues></_>
        <_>
          <internalNodes>
            0 -1 115 -17831346 -698620377 1880767706 -232075674
            1154108684 1214660615 -1594708850 -252183521</internalNodes>
          <leafValues>
            -2.1860238909721375e-01 1.7227940261363983e-01</leafValues></_>
        <_>
          <internalNodes>
            0 -1 292 959437840 784063837 781037103 -1361083425
            -652480384 -3148803 -1396332408 -1396707073</internalNodes>
          <leafValues>
            -1.9868052005767822e-01 1.9134302437305450e-01</leafValues></_>
        <_>
          <internalNodes>
            0 -1 215 -738597122 -674143341 -1205848016 1091298123
            -263945564 2136409663 1610738470 -148396277</internalNodes>
          <leafValues>
            -1.9221004843711853e-01 1.9304129481315613e-01</leafValues></_>
        <_>
          <internalNodes>
            0 -1 275 884938327 -68739817 117407487 -135528577 -20811
            -36307107 -1396987380 -1359495169</internalNodes>
          <leafValues>
            -1.5915517508983612e-01 2.2698181867599487e-01</leafValues></_>
        <_>
          <internalNodes>
            0 -1 33 -285544721 1543417386 -1205203197 2078941698
            -157450403 2130478386 -537659419 -27263117</internalNodes>
          <leafValues>
            -1.5994589030742645e-01 2.2754469513893127e-01</leafValues></_>
        <_>
          <internalNodes>
            0 -1 286 -1383093341 -1972636558 -744001131 -578828813
            -743463797 -1958547680 1429672221 -843196999</internalNodes>
          <leafValues>
            -1.8003210425376892e-01 2.0069698989391327e-01</leafValues></_>
        <_>
          <internalNodes>
            0 -1 172 1607270586 -347484470 -67305734 -774526744
            1170479066 -604385403 893743122 1979007146</internalNodes>
          <leafValues>
            -2.6929458975791931e-01 1.3034428656101227e-01</leafValues></_>
        <_>
          <internalNodes>
            0 -1 156 -740629050 1907748047 1974925247 1908271790
            -201984101 -268446242 2013058954 829146242</internalNodes>
          <leafValues>
            -1.7685580253601074e-01 1.8927831947803497e-01</leafValues></_>
        <_>
          <internalNodes>
            0 -1 55 -759467038 1087301119 1945991911 581692588
            -168692268 -1545372930 -205044657 -875561009</internalNodes>
          <leafValues>
            -2.0694749057292938e-01 1.6621601581573486e-01</leafValues></_>
        <_>
          <internalNodes>
            0 -1 244 100674864 -1363920718 -330318991 -1112661706
            981047221 -1140986129 729226389 -1396833148</internalNodes>
          <leafValues>
            -3.0018177628517151e-01 1.1317679286003113e-01</leafValues></_>
        <_>
          <internalNodes>
            0 -1 237 1727262214 -526320793 -220993882 -520817184
            -203200699 1947465524 -207360194 -218898645</internalNodes>
          <leafValues>
            -1.9951069355010986e-01 1.5874126553535461e-01</leafValues></_>
        <_>
          <internalNodes>
            0 -1 1 -827333969 541229280 85271455 831239684 542843641
            181010563 1247023173 1399321498</internalNodes>
          <leafValues>
            -1.8050654232501984e-01 1.7688345909118652e-01</leafValues></_>
        <_>
          <internalNodes>
            0 -1 103 -192894192 1979455836 544254935 -1413633377
            -351999091 1724434772 -338580597 1006611611</internalNodes>
          <leafValues>
            -2.2573556005954742e-01 1.4228321611881256e-01</leafValues></_>
        <_>
          <internalNodes>
            0 -1 322 -272373977 -520031314 -1572608382 -1029639294
            1190617927 1283575394 -979942080 -458759226</internalNodes>
          <leafValues>
            -2.6672568917274475e-01 1.2308733165264130e-01</leafValues></_>
        <_>
          <internalNodes>
            0 -1 136 -52780822 -1384370 -630542720 -1079195478 279970976
            284180520 -143654661 2135376911</internalNodes>
          <leafValues>
            -2.0105931162834167e-01 1.5788456797599792e-01</leafValues></_>
        <_>
          <internalNodes>
            0 -1 68 1078203648 2120564483 1534910348 1355086512
            -1308691600 -137109387 -143207136 -188403468</internalNodes>
          <leafValues>
            -2.9156917333602905e-01 1.1126454174518585e-01</leafValues></_>
        <_>
          <internalNodes>
            0 -1 93 -69235481 -34880563 1042343167 572705387 1760281862
            -718552818 -380323133 -217845465</internalNodes>
          <leafValues>
            -1.9717212021350861e-01 1.6274692118167877e-01</leafValues></_>
        <_>
          <internalNodes>
            0 -1 74 1533005777 -285759745 -205676795 -1914745099
            -1798592144 -1614830579 -1352679595 -289860</internalNodes>
          <leafValues>
            -1.5361279249191284e-01 2.1394543349742889e-01</leafValues></_>
        <_>
          <internalNodes>
            0 -1 324 -337127902 51116866 -1862876560 -245186026
            1156809839 1158107915 -2131832625 -520096273</internalNodes>
          <leafValues>
            -1.6643822193145752e-01 1.9849136471748352e-01</leafValues></_>
        <_>
          <internalNodes>
            0 -1 248 -1541397488 -1885862223 -1095127413 -1367733809
            413537585 -4227681 -1247803349 -1091042272</internalNodes>
          <leafValues>
            -2.7068385481834412e-01 1.2066661566495895e-01</leafValues></_>
        <_>
          <internalNodes>
            0 -1 134 1998581378 328710554 -1210465235 -37357574
            500118986 -1075642485 -9851230 -121118740</internalNodes>
          <leafValues>
            -1.5282814204692841e-01 2.0699656009674072e-01</leafValues></_>
        <_>
          <internalNodes>
            0 -1 180 -109059158 -942351024 -1566800336 -2063618251
            -536809890 -1410913954 -513478697 -168314449</internalNodes>
          <leafValues>
            -1.4376637339591980e-01 2.2307910025119781e-01</leafValues></_>
        <_>
          <internalNodes>
            0 -1 238 4375238 384957438 -1461234482 -405235984 541356541
            -793453831 -336791590 -1601668216</internalNodes>
          <leafValues>
            -2.1953277289867401e-01 1.4308965206146240e-01</leafValues></_>
        <_>
          <internalNodes>
            0 -1 312 1409254151 56062865 -1937597521 -231426213
            862322949 13718850 639541900 1182005139</internalNodes>
          <leafValues>
            -2.4725922942161560e-01 1.2302870303392410e-01</leafValues></_>
        <_>
          <internalNodes>
            0 -1 225 -1942350476 891969267 -1076551809 -1074385248
            1033637885 -15881489 1018050941 -1430647538</internalNodes>
          <leafValues>
            -2.1392895281314850e-01 1.4550861716270447e-01</leafValues></_>
        <_>
          <internalNodes>
            0 -1 316 800841474 396744410 -122331660 -672270283
            -417464911 225776266 -443611664 -1309174400</internalNodes>
          <leafValues>
            -1.9778807461261749e-01 1.5559211373329163e-01</leafValues></_>
        <_>
          <internalNodes>
            0 -1 37 -1692935598 -1839152270 1618322114 -1835855230
            -848318688 1832925968 -272137268 1448561216</internalNodes>
          <leafValues>
            -2.8354969620704651e-01 1.0538991540670395e-01</leafValues></_>
        <_>
          <internalNodes>
            0 -1 75 571696981 -17408577 -134514824 -1086933236
            -1144261673 -96218870 -40376404 1072508581</internalNodes>
          <leafValues>
            -1.7753347754478455e-01 1.7435987293720245e-01</leafValues></_>
        <_>
          <internalNodes>
            0 -1 242 1854725520 -192883072 -146932295 -704843983
            705018788 -1193165363 -1359637780 -1964363996</internalNodes>
          <leafValues>
            -1.7927877604961395e-01 1.7626914381980896e-01</leafValues></_>
        <_>
          <internalNodes>
            0 -1 154 1598434964 -1885458705 -2299000 823717612 -48285804
            -1161822210 458310784 822149768</internalNodes>
          <leafValues>
            -3.1813099980354309e-01 9.7849823534488678e-02</leafValues></_>
        <_>
          <internalNodes>
            0 -1 59 -890247569 -979110619 -533271838 -235670614
            -817691826 289926935 -764440434 -140509377</internalNodes>
          <leafValues>
            -1.3277035951614380e-01 2.3389412462711334e-01</leafValues></_>
        <_>
          <internalNodes>
            0 -1 11 1222321338 278928452 -785323118 331723342 1486299548
            -610766152 1212878092 -95421876</internalNodes>
          <leafValues>
            -1.7981696128845215e-01 1.7245939373970032e-01</leafValues></_>
        <_>
          <internalNodes>
            0 -1 104 720502864 -604458820 -1110173733 -1717561224
            1039805106 -73795351 -1143776257 -1987575488</internalNodes>
          <leafValues>
            -2.2484940290451050e-01 1.3798385858535767e-01</leafValues></_>
        <_>
          <internalNodes>
            0 -1 297 -720376854 553862402 1885565552 1970729906
            779660006 23229187 -1043078960 -2047870041</internalNodes>
          <leafValues>
            -1.9741049408912659e-01 1.5736821293830872e-01</leafValues></_>
        <_>
          <internalNodes>
            0 -1 88 -685518037 -900991245 -818479061 -2135832046
            1297198231 1281149737 1225411338 1323253787</internalNodes>
          <leafValues>
            -2.0818705856800079e-01 1.4966650307178497e-01</leafValues></_>
        <_>
          <internalNodes>
            0 -1 185 240915728 1433675494 1032658780 -2422690
            -1195375676 -3382156 -1956356359 800784753</internalNodes>
          <leafValues>
            -2.2779297828674316e-01 1.3973061740398407e-01</leafValues></_>
        <_>
          <internalNodes>
            0 -1 160 -13504514 1163970432 -1638651260 -1060007697
            -1083834162 -1960965175 1952745026 423879050</internalNodes>
          <leafValues>
            -1.9462504982948303e-01 1.6550928354263306e-01</leafValues></_>
        <_>
          <internalNodes>
            0 -1 229 -1471747024 -1594055265 1078095263 -829603194
            -619822799 -647479054 991692351 -1086813041</internalNodes>
          <leafValues>
            -2.1246241033077240e-01 1.5003791451454163e-01</leafValues></_>
        <_>
          <internalNodes>
            0 -1 137 -607462486 -220851630 -1434319125 -68861270
            -947787777 -802062311 67406303 -607712293</internalNodes>
          <leafValues>
            -1.1228478699922562e-01 2.8953960537910461e-01</leafValues></_>
        <_>
          <internalNodes>
            0 -1 196 -1098562044 280222637 -589355337 818933156 89943612
            1586200230 1441841291 1122395650</internalNodes>
          <leafValues>
            -2.4551765620708466e-01 1.3376443088054657e-01</leafValues></_>
        <_>
          <internalNodes>
            0 -1 333 -279187613 1668535842 -2116941803 808228200
            -64548860 436435968 422734590 -444689505</internalNodes>
          <leafValues>
            -1.6230647265911102e-01 1.9022555649280548e-01</leafValues></_>
        <_>
          <internalNodes>
            0 -1 90 -738202614 -15515597 411077638 831678784 77842580
            1689652272 -132739960 -83704550</internalNodes>
          <leafValues>
            -1.6966541111469269e-01 1.7909471690654755e-01</leafValues></_>
        <_>
          <internalNodes>
            0 -1 148 -451426398 -1852772459 -108863232 -3694037
            -513409097 75513735 1507806682 1560610058</internalNodes>
          <leafValues>
            -1.8499492108821869e-01 1.6310502588748932e-01</leafValues></_>
        <_>
          <internalNodes>
            0 -1 99 -200230960 -326338765 -206337025 -134302099
            -1178812419 -554566179 -18055169 -1393031387</internalNodes>
          <leafValues>
            -1.7045731842517853e-01 1.8076866865158081e-01</leafValues></_>
        <_>
          <internalNodes>
            0 -1 23 -517958998 -245907029 -79617910 856355343 1071735915
            -243965637 1131348969 -179504148</internalNodes>
          <leafValues>
            -1.9308011233806610e-01 1.6170722246170044e-01</leafValues></_>
        <_>
          <internalNodes>
            0 -1 84 1882487799 1593146043 1366144479 -990643473
            2002075423 -272787033 -135809501 -134264045</internalNodes>
          <leafValues>
            -1.3312512636184692e-01 2.5643658638000488e-01</leafValues></_>
        <_>
          <internalNodes>
            0 -1 157 -1466030796 676372789 -40134613 -1145920705
            -1609553999 -1342977043 -1296262627 -1162319723</internalNodes>
          <leafValues>
            -2.2908377647399902e-01 1.3874182105064392e-01</leafValues></_>
        <_>
          <internalNodes>
            0 -1 233 1380698798 871457771 -1900122754 1990322254
            1616068843 -92117288 -515833862 -34507002</internalNodes>
          <leafValues>
            -1.6070857644081116e-01 1.9647763669490814e-01</leafValues></_>
        <_>
          <internalNodes>
            0 -1 50 -499660670 167800514 -607760508 -1567965184
            1632321779 2020529933 -767601825 1108078607</internalNodes>
          <leafValues>
            -2.6935064792633057e-01 1.1842699348926544e-01</leafValues></_>
        <_>
          <internalNodes>
            0 -1 295 -285878835 295956927 -1106073298 42628132
            -1020157679 223587086 -1124162172 -1330456954</internalNodes>
          <leafValues>
            -2.2565674781799316e-01 1.3592745363712311e-01</leafValues></_>
        <_>
          <internalNodes>
            0 -1 175 -735710985 1143778540 204313073 -1592808722
            -397008208 553248174 -1540087561 -373507842</internalNodes>
          <leafValues>
            -1.5745784342288971e-01 1.9688382744789124e-01</leafValues></_>
        <_>
          <internalNodes>
            0 -1 330 -809374033 -1524375900 1080795152 -10256319
            175804374 235069326 -1528064811 -204999690</internalNodes>
          <leafValues>
            -1.5998539328575134e-01 1.8788757920265198e-01</leafValues></_>
        <_>
          <internalNodes>
            0 -1 266 335826688 11856584 -1587548609 -1611339243
            913310379 378092255 650054159 1006567439</internalNodes>
          <leafValues>
            -3.5330399870872498e-01 8.6044095456600189e-02</leafValues></_>
        <_>
          <internalNodes>
            0 -1 254 -276572929 -329395079 195444987 2030491379
            -586346129 -295499980 -202545990 -1087508774</internalNodes>
          <leafValues>
            -1.1520419269800186e-01 2.6712989807128906e-01</leafValues></_>
        <_>
          <internalNodes>
            0 -1 149 1391342096 -1743476036 768536251 -1376875890
            -1189825872 473967053 2048420783 197657482</internalNodes>
          <leafValues>
            -1.8096573650836945e-01 1.6758839786052704e-01</leafValues></_>
        <_>
          <internalNodes>
            0 -1 141 -2023088096 -1560366862 707507471 -388086881
            -569017584 -5686612 -1626030767 -2019782040</internalNodes>
          <leafValues>
            -3.0268716812133789e-01 1.0446400195360184e-01</leafValues></_>
        <_>
          <internalNodes>
            0 -1 116 -581287329 1507052055 874552427 856906454
            -185835297 -1694510337 -1087908097 -553398529</internalNodes>
          <leafValues>
            -1.1559256166219711e-01 2.6722362637519836e-01</leafValues></_>
        <_>
          <internalNodes>
            0 -1 13 -537933073 2146151138 -503952595 -104435832
            1946137764 1535592178 -910860786 -118490169</internalNodes>
          <leafValues>
            -1.1397393792867661e-01 2.6951780915260315e-01</leafValues></_>
        <_>
          <internalNodes>
            0 -1 331 -498127318 -312259200 -1586335366 -191642976
            1128753133 85541411 -788577073 -503318345</internalNodes>
          <leafValues>
            -1.5998338162899017e-01 1.9250251352787018e-01</leafValues></_>
        <_>
          <internalNodes>
            0 -1 38 -500470200 117067 37383730 542561570 -576519928
            488312185 -473210462 -256393689</internalNodes>
          <leafValues>
            -2.7354952692985535e-01 1.1285948008298874e-01</leafValues></_>
        <_>
          <internalNodes>
            0 -1 151 1382172674 -640801854 -2105014672 454711814
            200870376 1106342096 1647165130 860558434</internalNodes>
          <leafValues>
            -2.1642561256885529e-01 1.4343258738517761e-01</leafValues></_>
        <_>
          <internalNodes>
            0 -1 179 -705698133 361950979 -1478515359 -404164505
            1970628591 -1805228357 -150999314 -100673786</internalNodes>
          <leafValues>
            -1.2806005775928497e-01 2.4355891346931458e-01</leafValues></_>
        <_>
          <internalNodes>
            0 -1 150 8532816 -520322480 1293961104 249474303 1428474784
            -1229715632 -810984703 138888712</internalNodes>
          <leafValues>
            -2.9912853240966797e-01 1.0275664180517197e-01</leafValues></_>
        <_>
          <internalNodes>
            0 -1 300 -51004109 -49886963 -1578982895 -1280917583
            -1512832492 1191528772 -1265696751 -1683557</internalNodes>
          <leafValues>
            -1.9473399221897125e-01 1.6011501848697662e-01</leafValues></_>
        <_>
          <internalNodes>
            0 -1 170 170000416 -1094168578 1843717955 -360141874
            -1210076267 -68224268 -1478618227 585630720</internalNodes>
          <leafValues>
            -3.7447702884674072e-01 8.0122850835323334e-02</leafValues></_>
        <_>
          <internalNodes>
            0 -1 303 1919347654 -172080431 -234699394 -122918
            -1778977898 -1435370658 -164637468 -520161578</internalNodes>
          <leafValues>
            -1.7542952299118042e-01 1.7235767841339111e-01</leafValues></_>
        <_>
          <internalNodes>
            0 -1 10 1079916676 1358995086 579952666 933015734 1469919132
            -1219557333 1308963661 1585263170</internalNodes>
          <leafValues>
            -2.4352337419986725e-01 1.2444119155406952e-01</leafValues></_>
        <_>
          <internalNodes>
            0 -1 105 1416519696 484089150 1661070865 685550380
            1352625045 -1114316312 -38583991 412705312</internalNodes>
          <leafValues>
            -2.4843925237655640e-01 1.2353383749723434e-01</leafValues></_>
        <_>
          <internalNodes>
            0 -1 40 -771272702 1720868791 -1773742337 13264576
            -713563392 980891342 -1929848 -596453688</internalNodes>
          <leafValues>
            -2.5249323248863220e-01 1.2096436321735382e-01</leafValues></_>
        <_>
          <internalNodes>
            0 -1 80 -571737712 1370546992 1101795649 1372838039
            2136005396 1767488312 -1223998642 -606488703</internalNodes>
          <leafValues>
            -1.9706019759178162e-01 1.5513731539249420e-01</leafValues></_>
        <_>
          <internalNodes>
            0 -1 261 -654050885 -1907040 -574111787 -1079247402
            480741562 -894187081 1561318731 -1953499905</internalNodes>
          <leafValues>
            -1.0011257231235504e-01 3.0037289857864380e-01</leafValues></_>
        <_>
          <internalNodes>
            0 -1 7 -293901198 -1340021238 1565376784 528649794 -25286864
            -429856242 608654864 -396232722</internalNodes>
          <leafValues>
            -2.3180101811885834e-01 1.3116697967052460e-01</leafValues></_>
        <_>
          <internalNodes>
            0 -1 135 141492384 -1266349410 -289963755 -1127553602
            -64359985 -121001882 717268836 -1259051832</internalNodes>
          <leafValues>
            -2.3227322101593018e-01 1.3171307742595673e-01</leafValues></_>
        <_>
          <internalNodes>
            0 -1 306 185330428 276964352 -1329255343 1897126002
            -1019979565 -2077050768 631505596 -869544936</internalNodes>
          <leafValues>
            -2.0070695877075195e-01 1.5440684556961060e-01</leafValues></_>
        <_>
          <internalNodes>
            0 -1 163 815257085 1021095636 1160080260 -1919942876
            -681081867 -1298056603 -1803568840 957308419</internalNodes>
          <leafValues>
            -1.8240043520927429e-01 1.6882781684398651e-01</leafValues></_>
        <_>
          <internalNodes>
            0 -1 267 1554574226 1068674399 1287416149 -1377987949
            1798443920 -78993273 -1165666150 708076819</internalNodes>
          <leafValues>
            -1.7935362458229065e-01 1.6921968758106232e-01</leafValues></_>
        <_>
          <internalNodes>
            0 -1 128 1079290276 1906497393 -185556942 1671661267
            1948297918 1318443252 1930735496 1405731466</internalNodes>
          <leafValues>
            -2.1231587231159210e-01 1.4265705645084381e-01</leafValues></_>
        <_>
          <internalNodes>
            0 -1 131 81912704 1698739489 1257514288 965968931 2102159518
            -844513095 1005494433 836444810</internalNodes>
          <leafValues>
            -2.7067553997039795e-01 1.1573272198438644e-01</leafValues></_>
        <_>
          <internalNodes>
            0 -1 255 -592390668 -1694225056 -1959748513 364387644
            498623932 -1194841887 -1431816003 -1349841813</internalNodes>
          <leafValues>
            -1.5577024221420288e-01 1.9239939749240875e-01</leafValues></_>
        <_>
          <internalNodes>
            0 -1 313 -2023246413 -1942945800 -830073732 63373254
            131425532 -1074399571 -1231912996 -795401</internalNodes>
          <leafValues>
            -1.4438043534755707e-01 2.1008540689945221e-01</leafValues></_>
        <_>
          <internalNodes>
            0 -1 42 -780199670 1914814474 -833294247 -226869262
            -1768012732 -1905559549 -1060665883 -466093073</internalNodes>
          <leafValues>
            -1.9032448530197144e-01 1.6435644030570984e-01</leafValues></_>
        <_>
          <internalNodes>
            0 -1 184 -1158271004 -587428355 -689227268 -1111573462
            -2014769964 854883455 2129341356 -1074590685</internalNodes>
          <leafValues>
            -1.6787031292915344e-01 1.8462574481964111e-01</leafValues></_>
        <_>
          <internalNodes>
            0 -1 139 1224397394 -367358270 -1858844545 1079075563
            1348321392 217813067 1817266159 -27058657</internalNodes>
          <leafValues>
            -2.0102767646312714e-01 1.5539856255054474e-01</leafValues></_>
        <_>
          <internalNodes>
            0 -1 249 111163168 -256379546 -192581028 -42674209
            -137766988 -1192087575 -1158148272 708841479</internalNodes>
          <leafValues>
            -2.9248645901679993e-01 1.0544612258672714e-01</leafValues></_>
        <_>
          <internalNodes>
            0 -1 202 -889467386 551667116 573541791 -327693396
            1706505606 -1514699280 -233670809 -219159773</internalNodes>
          <leafValues>
            -1.8820738792419434e-01 1.7098496854305267e-01</leafValues></_>
        <_>
          <internalNodes>
            0 -1 31 -525959410 -420815068 -1034245200 -902947672
            10631456 157346507 378505668 1643634983</internalNodes>
          <leafValues>
            -2.7091443538665771e-01 1.1700287461280823e-01</leafValues></_>
        <_>
          <internalNodes>
            0 -1 152 -956692832 1492930141 -1804270297 587217730
            -593749500 1322391850 -657826342 1247959914</internalNodes>
          <leafValues>
            -2.6317381858825684e-01 1.1648173630237579e-01</leafValues></_>
        <_>
          <internalNodes>
            0 -1 256 722699904 2118170880 -1645753120 157413508
            931125673 1057386784 -1053080190 220658979</internalNodes>
          <leafValues>
            -2.7382540702819824e-01 1.1156702041625977e-01</leafValues></_>
        <_>
          <internalNodes>
            0 -1 66 -2103047162 646604731 -637377520 -221634528
            622351031 1139923231 -1082193315 -187406560</internalNodes>
          <leafValues>
            -2.8020817041397095e-01 1.0771577805280685e-01</leafValues></_>
        <_>
          <internalNodes>
            0 -1 30 83824711 -1426686221 -1527240156 585250932 733797956
            1957473082 -5066940 517488966</internalNodes>
          <leafValues>
            -2.5697535276412964e-01 1.2168458104133606e-01</leafValues></_></weakClassifiers></_></stages>
  <features>
    <_>
      <rect>
        0 0 1 1</rect></_>
    <_>
      <rect>
        0 0 1 3</rect></_>
    <_>
      <rect>
        0 0 2 3</rect></_>
    <_>
      <rect>
        0 0 2 6</rect></_>
    <_>
      <rect>
        0 0 3 2</rect></_>
    <_>
      <rect>
        0 0 3 4</rect></_>
    <_>
      <rect>
        0 0 3 7</rect></_>
    <_>
      <rect>
        0 0 3 8</rect></_>
    <_>
      <rect>
        0 0 8 2</rect></_>
    <_>
      <rect>
        0 1 3 4</rect></_>
    <_>
      <rect>
        0 2 1 6</rect></_>
    <_>
      <rect>
        0 3 1 4</rect></_>
    <_>
      <rect>
        0 4 1 2</rect></_>
    <_>
      <rect>
        0 4 2 2</rect></_>
    <_>
      <rect>
        0 4 2 6</rect></_>
    <_>
      <rect>
        0 4 4 5</rect></_>
    <_>
      <rect>
        0 4 5 3</rect></_>
    <_>
      <rect>
        0 5 2 2</rect></_>
    <_>
      <rect>
        0 5 6 3</rect></_>
    <_>
      <rect>
        0 6 2 3</rect></_>
    <_>
      <rect>
        0 11 2 3</rect></_>
    <_>
      <rect>
        0 11 3 3</rect></_>
    <_>
      <rect>
        0 11 3 4</rect></_>
    <_>
      <rect>
        0 12 8 4</rect></_>
    <_>
      <rect>
        0 13 8 1</rect></_>
    <_>
      <rect>
        0 14 3 3</rect></_>
    <_>
      <rect>
        0 15 1 1</rect></_>
    <_>
      <rect>
        0 18 8 2</rect></_>
    <_>
      <rect>
        0 21 1 1</rect></_>
    <_>
      <rect>
        1 0 1 1</rect></_>
    <_>
      <rect>
        1 0 6 6</rect></_>
    <_>
      <rect>
        1 3 1 1</rect></_>
    <_>
      <rect>
        1 5 1 1</rect></_>
    <_>
      <rect>
        1 5 2 2</rect></_>
    <_>
      <rect>
        1 5 4 5</rect></_>
    <_>
      <rect>
        1 5 6 3</rect></_>
    <_>
      <rect>
        1 8 1 1</rect></_>
    <_>
      <rect>
        1 8 4 5</rect></_>
    <_>
      <rect>
        1 10 1 1</rect></_>
    <_>
      <rect>
        1 13 4 3</rect></_>
    <_>
      <rect>
        1 15 5 3</rect></_>
    <_>
      <rect>
        1 16 1 1</rect></_>
    <_>
      <rect>
        1 17 1 1</rect></_>
    <_>
